<?xml version="1.0"?>
<opencv_storage>
<cascade>
  <stageType>BOOST</stageType>
  <featureType>HAAR</featureType>
  <height>59</height>
  <width>51</width>
  <stageParams>
    <boostType>GAB</boostType>
    <minHitRate>9.9500000476837158e-01</minHitRate>
    <maxFalseAlarm>5.0000000000000000e-01</maxFalseAlarm>
    <weightTrimRate>9.4999999999999996e-01</weightTrimRate>
    <maxDepth>1</maxDepth>
    <maxWeakCount>100</maxWeakCount></stageParams>
  <featureParams>
    <maxCatCount>0</maxCatCount>
    <featSize>1</featSize>
    <mode>BASIC</mode></featureParams>
  <stageNum>9</stageNum>
  <stages>
    <!-- stage 0 -->
    <_>
      <maxWeakCount>1</maxWeakCount>
      <stageThreshold>1.</stageThreshold>
      <weakClassifiers>
        <_>
          <internalNodes>
            0 -1 2 5.0520050525665283e-01</internalNodes>
          <leafValues>
            -9.9800199270248413e-01 1.</leafValues></_></weakClassifiers></_>
    <!-- stage 1 -->
    <_>
      <maxWeakCount>2</maxWeakCount>
      <stageThreshold>-1.8980322778224945e-01</stageThreshold>
      <weakClassifiers>
        <_>
          <internalNodes>
            0 -1 16 9.6768429502844810e-03</internalNodes>
          <leafValues>
            -9.9138861894607544e-01 7.3730295896530151e-01</leafValues></_>
        <_>
          <internalNodes>
            0 -1 20 5.8455858379602432e-03</internalNodes>
          <leafValues>
            -9.2710620164871216e-01 8.4440064430236816e-01</leafValues></_></weakClassifiers></_>
    <!-- stage 2 -->
    <_>
      <maxWeakCount>3</maxWeakCount>
      <stageThreshold>-1.0880497694015503e+00</stageThreshold>
      <weakClassifiers>
        <_>
          <internalNodes>
            0 -1 13 3.6318411584943533e-03</internalNodes>
          <leafValues>
            -9.4655704498291016e-01 7.9886150360107422e-01</leafValues></_>
        <_>
          <internalNodes>
            0 -1 10 1.4682748354971409e-02</internalNodes>
          <leafValues>
            -8.6654466390609741e-01 8.0238729715347290e-01</leafValues></_>
        <_>
          <internalNodes>
            0 -1 0 5.0150556489825249e-03</internalNodes>
          <leafValues>
            -9.1424101591110229e-01 7.2505199909210205e-01</leafValues></_></weakClassifiers></_>
    <!-- stage 3 -->
    <_>
      <maxWeakCount>3</maxWeakCount>
      <stageThreshold>-1.2854051589965820e+00</stageThreshold>
      <weakClassifiers>
        <_>
          <internalNodes>
            0 -1 12 -1.0277869179844856e-02</internalNodes>
          <leafValues>
            7.0235931873321533e-01 -9.3466806411743164e-01</leafValues></_>
        <_>
          <internalNodes>
            0 -1 8 -1.5992738306522369e-02</internalNodes>
          <leafValues>
            6.9099724292755127e-01 -8.7176680564880371e-01</leafValues></_>
        <_>
          <internalNodes>
            0 -1 19 -3.8045385736040771e-04</internalNodes>
          <leafValues>
            5.2102971076965332e-01 -9.9572926759719849e-01</leafValues></_></weakClassifiers></_>
    <!-- stage 4 -->
    <_>
      <maxWeakCount>3</maxWeakCount>
      <stageThreshold>-1.1666817665100098e+00</stageThreshold>
      <weakClassifiers>
        <_>
          <internalNodes>
            0 -1 4 7.5269192457199097e-03</internalNodes>
          <leafValues>
            -8.6483842134475708e-01 7.9958248138427734e-01</leafValues></_>
        <_>
          <internalNodes>
            0 -1 6 9.8738474771380424e-03</internalNodes>
          <leafValues>
            -9.4521695375442505e-01 6.2719833850860596e-01</leafValues></_>
        <_>
          <internalNodes>
            0 -1 9 2.0938262343406677e-02</internalNodes>
          <leafValues>
            -8.9474761486053467e-01 6.4337366819381714e-01</leafValues></_></weakClassifiers></_>
    <!-- stage 5 -->
    <_>
      <maxWeakCount>3</maxWeakCount>
      <stageThreshold>-9.5636910200119019e-01</stageThreshold>
      <weakClassifiers>
        <_>
          <internalNodes>
            0 -1 17 -4.6316855587065220e-03</internalNodes>
          <leafValues>
            7.3062729835510254e-01 -9.3528181314468384e-01</leafValues></_>
        <_>
          <internalNodes>
            0 -1 1 7.2569608688354492e-01</internalNodes>
          <leafValues>
            -8.0739367008209229e-01 8.5286760330200195e-01</leafValues></_>
        <_>
          <internalNodes>
            0 -1 5 -1.7887293361127377e-03</internalNodes>
          <leafValues>
            7.8630644083023071e-01 -8.5850429534912109e-01</leafValues></_></weakClassifiers></_>
    <!-- stage 6 -->
    <_>
      <maxWeakCount>2</maxWeakCount>
      <stageThreshold>-3.4307667613029480e-01</stageThreshold>
      <weakClassifiers>
        <_>
          <internalNodes>
            0 -1 18 -1.4958316460251808e-03</internalNodes>
          <leafValues>
            5.9931504726409912e-01 -9.2794758081436157e-01</leafValues></_>
        <_>
          <internalNodes>
            0 -1 7 -4.5675276778638363e-03</internalNodes>
          <leafValues>
            6.1825597286224365e-01 -9.4239175319671631e-01</leafValues></_></weakClassifiers></_>
    <!-- stage 7 -->
    <_>
      <maxWeakCount>3</maxWeakCount>
      <stageThreshold>-1.0995262861251831e+00</stageThreshold>
      <weakClassifiers>
        <_>
          <internalNodes>
            0 -1 21 7.9283323138952255e-03</internalNodes>
          <leafValues>
            -8.9068824052810669e-01 7.4218750000000000e-01</leafValues></_>
        <_>
          <internalNodes>
            0 -1 3 2.2671343758702278e-03</internalNodes>
          <leafValues>
            -9.0249079465866089e-01 7.2542834281921387e-01</leafValues></_>
        <_>
          <internalNodes>
            0 -1 15 2.3014156340650516e-06</internalNodes>
          <leafValues>
            -9.2564052343368530e-01 6.9365274906158447e-01</leafValues></_></weakClassifiers></_>
    <!-- stage 8 -->
    <_>
      <maxWeakCount>2</maxWeakCount>
      <stageThreshold>-3.1340530514717102e-01</stageThreshold>
      <weakClassifiers>
        <_>
          <internalNodes>
            0 -1 14 1.7100654076784849e-04</internalNodes>
          <leafValues>
            -9.6581196784973145e-01 7.1631205081939697e-01</leafValues></_>
        <_>
          <internalNodes>
            0 -1 11 3.1069580472831149e-06</internalNodes>
          <leafValues>
            -9.8511576652526855e-01 6.5240663290023804e-01</leafValues></_></weakClassifiers></_></stages>
  <features>
    <_>
      <rects>
        <_>
          0 0 15 52 -1.</_>
        <_>
          5 0 5 52 3.</_></rects>
      <tilted>0</tilted></_>
    <_>
      <rects>
        <_>
          0 14 51 45 -1.</_>
        <_>
          17 14 17 45 3.</_></rects>
      <tilted>0</tilted></_>
    <_>
      <rects>
        <_>
          0 17 51 42 -1.</_>
        <_>
          17 17 17 42 3.</_></rects>
      <tilted>0</tilted></_>
    <_>
      <rects>
        <_>
          0 26 4 20 -1.</_>
        <_>
          2 26 2 20 2.</_></rects>
      <tilted>0</tilted></_>
    <_>
      <rects>
        <_>
          1 57 22 1 -1.</_>
        <_>
          12 57 11 1 2.</_></rects>
      <tilted>0</tilted></_>
    <_>
      <rects>
        <_>
          3 0 14 16 -1.</_>
        <_>
          3 0 7 8 2.</_>
        <_>
          10 8 7 8 2.</_></rects>
      <tilted>0</tilted></_>
    <_>
      <rects>
        <_>
          4 14 9 42 -1.</_>
        <_>
          4 28 9 14 3.</_></rects>
      <tilted>0</tilted></_>
    <_>
      <rects>
        <_>
          7 6 6 24 -1.</_>
        <_>
          7 14 6 8 3.</_></rects>
      <tilted>0</tilted></_>
    <_>
      <rects>
        <_>
          8 17 20 24 -1.</_>
        <_>
          8 17 10 12 2.</_>
        <_>
          18 29 10 12 2.</_></rects>
      <tilted>0</tilted></_>
    <_>
      <rects>
        <_>
          21 2 5 51 -1.</_>
        <_>
          21 19 5 17 3.</_></rects>
      <tilted>0</tilted></_>
    <_>
      <rects>
        <_>
          22 13 12 42 -1.</_>
        <_>
          22 13 6 21 2.</_>
        <_>
          28 34 6 21 2.</_></rects>
      <tilted>0</tilted></_>
    <_>
      <rects>
        <_>
          23 15 1 2 -1.</_>
        <_>
          23 16 1 1 2.</_></rects>
      <tilted>0</tilted></_>
    <_>
      <rects>
        <_>
          23 45 28 14 -1.</_>
        <_>
          23 45 14 7 2.</_>
        <_>
          37 52 14 7 2.</_></rects>
      <tilted>0</tilted></_>
    <_>
      <rects>
        <_>
          26 17 10 8 -1.</_>
        <_>
          26 21 10 4 2.</_></rects>
      <tilted>0</tilted></_>
    <_>
      <rects>
        <_>
          32 4 15 1 -1.</_>
        <_>
          37 4 5 1 3.</_></rects>
      <tilted>0</tilted></_>
    <_>
      <rects>
        <_>
          32 19 1 2 -1.</_>
        <_>
          32 20 1 1 2.</_></rects>
      <tilted>0</tilted></_>
    <_>
      <rects>
        <_>
          36 9 15 42 -1.</_>
        <_>
          41 9 5 42 3.</_></rects>
      <tilted>0</tilted></_>
    <_>
      <rects>
        <_>
          37 45 14 14 -1.</_>
        <_>
          37 45 7 7 2.</_>
        <_>
          44 52 7 7 2.</_></rects>
      <tilted>0</tilted></_>
    <_>
      <rects>
        <_>
          40 55 11 4 -1.</_>
        <_>
          40 57 11 2 2.</_></rects>
      <tilted>0</tilted></_>
    <_>
      <rects>
        <_>
          44 44 2 12 -1.</_>
        <_>
          45 44 1 12 2.</_></rects>
      <tilted>0</tilted></_>
    <_>
      <rects>
        <_>
          46 13 5 18 -1.</_>
        <_>
          46 22 5 9 2.</_></rects>
      <tilted>0</tilted></_>
    <_>
      <rects>
        <_>
          48 0 2 34 -1.</_>
        <_>
          48 17 2 17 2.</_></rects>
      <tilted>0</tilted></_></features></cascade>
</opencv_storage>
